//Numpy array shape [64]
//Min -1.905183196068
//Max 1.584434509277
//Number of zeros 0

#ifndef B21_H_
#define B21_H_

#ifndef __SYNTHESIS__
bn_dense_1_bias_t b21[64];
#else
bn_dense_1_bias_t b21[64] = {-1.1095700264, 1.3538310528, -0.3577980995, -0.5513378978, -0.2163661867, -0.4536814690, 0.2740225196, -0.2786962986, -0.0902357101, 0.1774302721, -0.2715590894, -1.9051831961, -0.7685979605, -0.4148983359, 0.7086374760, 0.1506951451, 0.1408230066, -0.7053411007, -0.2847698331, 0.1405403763, 0.9116407633, -0.0133804083, -0.4901386499, -0.1863345504, -0.8030189276, 0.5172406435, -0.5527901649, 0.5190879107, -0.7718999982, 0.3059390783, 0.1067628264, -0.6354143620, 0.3370541632, -0.0544214621, 0.2716937363, 0.5480736494, 1.5844345093, 0.4771422744, 0.0765537769, 0.0284304284, -0.4215298891, -0.7885868549, -1.1711786985, -0.3484326601, 0.7099885345, -0.8167498112, -0.4632185698, -1.3620315790, -0.5922241211, 0.8225531578, -0.0231302530, -0.5772346258, -0.0973223448, -0.8098217249, 1.0742145777, 0.2739869952, 0.1803795546, 0.6108715534, -0.4369755685, 0.1710828692, -0.9795066714, 0.0638007820, 0.5928311348, 0.0278895460};

#endif

#endif
